digraph Tree {
node [shape=box] ;
0 [label="X[56] <= 0.5\nentropy = 0.868\nsamples = 4934337\nvalue = [1427482, 3506855]"] ;
1 [label="X[29] <= 0.5\nentropy = 0.869\nsamples = 4924084\nvalue = [1427456, 3496628]"] ;
0 -> 1 [labeldistance=2.5, labelangle=45, headlabel="True"] ;
2 [label="X[37] <= 0.5\nentropy = 0.868\nsamples = 4922169\nvalue = [1425541, 3496628]"] ;
1 -> 2 ;
3 [label="X[17] <= 0.5\nentropy = 0.868\nsamples = 4919859\nvalue = [1423231, 3496628]"] ;
2 -> 3 ;
4 [label="X[69] <= 0.5\nentropy = 0.867\nsamples = 4916413\nvalue = [1419815, 3496598]"] ;
3 -> 4 ;
5 [label="X[78] <= 0.5\nentropy = 0.866\nsamples = 4910114\nvalue = [1414360, 3495754]"] ;
4 -> 5 ;
6 [label="X[97] <= 0.5\nentropy = 0.868\nsamples = 4865000\nvalue = [1408102, 3456898]"] ;
5 -> 6 ;
7 [label="X[44] <= 0.5\nentropy = 0.868\nsamples = 4862402\nvalue = [1405582, 3456820]"] ;
6 -> 7 ;
8 [label="X[81] <= 0.5\nentropy = 0.867\nsamples = 4859632\nvalue = [1402812, 3456820]"] ;
7 -> 8 ;
9 [label="X[30] <= 0.5\nentropy = 0.866\nsamples = 4855409\nvalue = [1399390, 3456019]"] ;
8 -> 9 ;
10 [label="X[5] <= 0.5\nentropy = 0.866\nsamples = 4852596\nvalue = [1396577, 3456019]"] ;
9 -> 10 ;
11 [label="X[31] <= 0.5\nentropy = 0.865\nsamples = 4850662\nvalue = [1394666, 3455996]"] ;
10 -> 11 ;
12 [label="X[74] <= 0.5\nentropy = 0.865\nsamples = 4849131\nvalue = [1393135, 3455996]"] ;
11 -> 12 ;
13 [label="X[33] <= 0.5\nentropy = 0.865\nsamples = 4845390\nvalue = [1390239, 3455151]"] ;
12 -> 13 ;
14 [label="X[27] <= 0.5\nentropy = 0.864\nsamples = 4843185\nvalue = [1388059, 3455126]"] ;
13 -> 14 ;
15 [label="X[36] <= 0.5\nentropy = 0.864\nsamples = 4841111\nvalue = [1386091, 3455020]"] ;
14 -> 15 ;
16 [label="X[58] <= 0.5\nentropy = 0.865\nsamples = 4825745\nvalue = [1386091, 3439654]"] ;
15 -> 16 ;
17 [label="X[91] <= 0.5\nentropy = 0.865\nsamples = 4824004\nvalue = [1384350, 3439654]"] ;
16 -> 17 ;
18 [label="X[24] <= 0.5\nentropy = 0.861\nsamples = 4671137\nvalue = [1327357, 3343780]"] ;
17 -> 18 ;
19 [label="X[82] <= 0.5\nentropy = 0.861\nsamples = 4668935\nvalue = [1325160, 3343775]"] ;
18 -> 19 ;
20 [label="X[10] <= 0.5\nentropy = 0.862\nsamples = 4644567\nvalue = [1322597, 3321970]"] ;
19 -> 20 ;
21 [label="X[64] <= 0.5\nentropy = 0.861\nsamples = 4642770\nvalue = [1320800, 3321970]"] ;
20 -> 21 ;
22 [label="X[45] <= 0.5\nentropy = 0.86\nsamples = 4630378\nvalue = [1313118, 3317260]"] ;
21 -> 22 ;
23 [label="X[55] <= 0.5\nentropy = 0.86\nsamples = 4628267\nvalue = [1311007, 3317260]"] ;
22 -> 23 ;
24 [label="X[54] <= 0.5\nentropy = 0.859\nsamples = 4626198\nvalue = [1308938, 3317260]"] ;
23 -> 24 ;
25 [label="X[88] <= 0.5\nentropy = 0.859\nsamples = 4624593\nvalue = [1307333, 3317260]"] ;
24 -> 25 ;
26 [label="X[40] <= 0.5\nentropy = 0.861\nsamples = 4575274\nvalue = [1299475, 3275799]"] ;
25 -> 26 ;
27 [label="X[23] <= 0.5\nentropy = 0.86\nsamples = 4572627\nvalue = [1296830, 3275797]"] ;
26 -> 27 ;
28 [label="X[77] <= 0.5\nentropy = 0.86\nsamples = 4570735\nvalue = [1294938, 3275797]"] ;
27 -> 28 ;
29 [label="X[51] <= 0.5\nentropy = 0.861\nsamples = 4545867\nvalue = [1292120, 3253747]"] ;
28 -> 29 ;
30 [label="X[16] <= 0.5\nentropy = 0.861\nsamples = 4543382\nvalue = [1289767, 3253615]"] ;
29 -> 30 ;
31 [label="X[3] <= 0.5\nentropy = 0.86\nsamples = 4541098\nvalue = [1287483, 3253615]"] ;
30 -> 31 ;
32 [label="X[25] <= 0.5\nentropy = 0.86\nsamples = 4539368\nvalue = [1285760, 3253608]"] ;
31 -> 32 ;
33 [label="X[34] <= 0.5\nentropy = 0.86\nsamples = 4539354\nvalue = [1285749, 3253605]"] ;
32 -> 33 ;
34 [label="X[20] <= 0.5\nentropy = 0.859\nsamples = 4533432\nvalue = [1279827, 3253605]"] ;
33 -> 34 ;
35 [label="X[6] <= 0.5\nentropy = 0.857\nsamples = 4523159\nvalue = [1270481, 3252678]"] ;
34 -> 35 ;
36 [label="X[39] <= 0.5\nentropy = 0.856\nsamples = 4521485\nvalue = [1268807, 3252678]"] ;
35 -> 36 ;
37 [label="X[84] <= 0.5\nentropy = 0.856\nsamples = 4518563\nvalue = [1265885, 3252678]"] ;
36 -> 37 ;
38 [label="X[98] <= 0.5\nentropy = 0.858\nsamples = 4440666\nvalue = [1251439, 3189227]"] ;
37 -> 38 ;
39 [label="X[76] <= 0.5\nentropy = 0.86\nsamples = 4379994\nvalue = [1242292, 3137702]"] ;
38 -> 39 ;
40 [label="X[15] <= 0.5\nentropy = 0.863\nsamples = 4337938\nvalue = [1237663, 3100275]"] ;
39 -> 40 ;
41 [label="X[73] <= 0.5\nentropy = 0.862\nsamples = 4336422\nvalue = [1236147, 3100275]"] ;
40 -> 41 ;
42 [label="X[35] <= 0.5\nentropy = 0.864\nsamples = 4312847\nvalue = [1234110, 3078737]"] ;
41 -> 42 ;
43 [label="X[67] <= 0.5\nentropy = 0.863\nsamples = 4311214\nvalue = [1232477, 3078737]"] ;
42 -> 43 ;
44 [label="X[28] <= 0.5\nentropy = 0.861\nsamples = 4282138\nvalue = [1217415, 3064723]"] ;
43 -> 44 ;
45 [label="X[41] <= 0.5\nentropy = 0.86\nsamples = 4274199\nvalue = [1210770, 3063429]"] ;
44 -> 45 ;
46 [label="X[53] <= 0.5\nentropy = 0.859\nsamples = 4270831\nvalue = [1208059, 3062772]"] ;
45 -> 46 ;
47 [label="X[14] <= 0.5\nentropy = 0.859\nsamples = 4269197\nvalue = [1206425, 3062772]"] ;
46 -> 47 ;
48 [label="X[11] <= 0.5\nentropy = 0.859\nsamples = 4267183\nvalue = [1204584, 3062599]"] ;
47 -> 48 ;
49 [label="X[57] <= 0.5\nentropy = 0.858\nsamples = 4264963\nvalue = [1202364, 3062599]"] ;
48 -> 49 ;
50 [label="X[93] <= 0.5\nentropy = 0.857\nsamples = 4260057\nvalue = [1197458, 3062599]"] ;
49 -> 50 ;
51 [label="X[48] <= 0.5\nentropy = 0.857\nsamples = 4260027\nvalue = [1197428, 3062599]"] ;
50 -> 51 ;
52 [label="X[68] <= 0.5\nentropy = 0.857\nsamples = 4258250\nvalue = [1195651, 3062599]"] ;
51 -> 52 ;
53 [label="X[1] <= 0.5\nentropy = 0.856\nsamples = 4256684\nvalue = [1194126, 3062558]"] ;
52 -> 53 ;
54 [label="X[9] <= 0.5\nentropy = 0.853\nsamples = 4147282\nvalue = [1154752, 2992530]"] ;
53 -> 54 ;
55 [label="X[50] <= 0.5\nentropy = 0.854\nsamples = 4137415\nvalue = [1154752, 2982663]"] ;
54 -> 55 ;
56 [label="X[62] <= 0.5\nentropy = 0.854\nsamples = 4135645\nvalue = [1152994, 2982651]"] ;
55 -> 56 ;
57 [label="X[21] <= 0.5\nentropy = 0.852\nsamples = 4125004\nvalue = [1145122, 2979882]"] ;
56 -> 57 ;
58 [label="X[26] <= 0.5\nentropy = 0.851\nsamples = 4121124\nvalue = [1141289, 2979835]"] ;
57 -> 58 ;
59 [label="X[32] <= 0.5\nentropy = 0.851\nsamples = 4119652\nvalue = [1139817, 2979835]"] ;
58 -> 59 ;
60 [label="X[65] <= 0.5\nentropy = 0.851\nsamples = 4118142\nvalue = [1138307, 2979835]"] ;
59 -> 60 ;
61 [label="X[92] <= 0.5\nentropy = 0.849\nsamples = 4103631\nvalue = [1128608, 2975023]"] ;
60 -> 61 ;
62 [label="X[60] <= 0.5\nentropy = 0.848\nsamples = 4101964\nvalue = [1126999, 2974965]"] ;
61 -> 62 ;
63 [label="X[19] <= 0.5\nentropy = 0.848\nsamples = 4098017\nvalue = [1123995, 2974022]"] ;
62 -> 63 ;
64 [label="X[4] <= 0.5\nentropy = 0.847\nsamples = 4096424\nvalue = [1122423, 2974001]"] ;
63 -> 64 ;
65 [label="X[7] <= 0.5\nentropy = 0.847\nsamples = 4094831\nvalue = [1120863, 2973968]"] ;
64 -> 65 ;
66 [label="X[87] <= 0.5\nentropy = 0.846\nsamples = 4093016\nvalue = [1119048, 2973968]"] ;
65 -> 66 ;
67 [label="X[71] <= 0.5\nentropy = 0.847\nsamples = 4086204\nvalue = [1117753, 2968451]"] ;
66 -> 67 ;
68 [label="X[13] <= 0.5\nentropy = 0.848\nsamples = 4056748\nvalue = [1114336, 2942412]"] ;
67 -> 68 ;
69 [label="X[0] <= 0.5\nentropy = 0.847\nsamples = 4054277\nvalue = [1111865, 2942412]"] ;
68 -> 69 ;
70 [label="X[43] <= 0.5\nentropy = 0.809\nsamples = 2757524\nvalue = [685874, 2071650]"] ;
69 -> 70 ;
71 [label="X[22] <= 0.5\nentropy = 0.809\nsamples = 2757443\nvalue = [685874, 2071569]"] ;
70 -> 71 ;
72 [label="X[86] <= 0.5\nentropy = 0.809\nsamples = 2755988\nvalue = [684426, 2071562]"] ;
71 -> 72 ;
73 [label="X[90] <= 0.5\nentropy = 0.808\nsamples = 2732325\nvalue = [678256, 2054069]"] ;
72 -> 73 ;
74 [label="X[47] <= 0.5\nentropy = 0.811\nsamples = 2693393\nvalue = [673219, 2020174]"] ;
73 -> 74 ;
75 [label="X[12] <= 0.5\nentropy = 0.81\nsamples = 2691794\nvalue = [671620, 2020174]"] ;
74 -> 75 ;
76 [label="X[46] <= 0.5\nentropy = 0.81\nsamples = 2689934\nvalue = [669765, 2020169]"] ;
75 -> 76 ;
77 [label="X[18] <= 0.5\nentropy = 0.809\nsamples = 2688035\nvalue = [667866, 2020169]"] ;
76 -> 77 ;
78 [label="X[99] <= 0.5\nentropy = 0.807\nsamples = 2684155\nvalue = [663986, 2020169]"] ;
77 -> 78 ;
79 [label="X[85] <= 0.5\nentropy = 0.81\nsamples = 2649033\nvalue = [659330, 1989703]"] ;
78 -> 79 ;
80 [label="X[72] <= 0.5\nentropy = 0.819\nsamples = 2520519\nvalue = [642218, 1878301]"] ;
79 -> 80 ;
81 [label="X[61] <= 0.5\nentropy = 0.817\nsamples = 2501621\nvalue = [635229, 1866392]"] ;
80 -> 81 ;
82 [label="X[2] <= 0.5\nentropy = 0.817\nsamples = 2499786\nvalue = [633645, 1866141]"] ;
81 -> 82 ;
83 [label="X[75] <= 0.5\nentropy = 0.816\nsamples = 2498107\nvalue = [632033, 1866074]"] ;
82 -> 83 ;
84 [label="X[89] <= 0.5\nentropy = 0.818\nsamples = 2488433\nvalue = [632033, 1856400]"] ;
83 -> 84 ;
85 [label="X[79] <= 0.5\nentropy = 0.82\nsamples = 2449023\nvalue = [626241, 1822782]"] ;
84 -> 85 ;
86 [label="X[38] <= 0.5\nentropy = 0.819\nsamples = 2446616\nvalue = [624174, 1822442]"] ;
85 -> 86 ;
87 [label="X[95] <= 0.5\nentropy = 0.819\nsamples = 2445018\nvalue = [622608, 1822410]"] ;
86 -> 87 ;
88 [label="X[8] <= 0.5\nentropy = 0.818\nsamples = 2444053\nvalue = [621952, 1822101]"] ;
87 -> 88 ;
89 [label="X[63] <= 0.5\nentropy = 0.817\nsamples = 2440790\nvalue = [618689, 1822101]"] ;
88 -> 89 ;
90 [label="X[83] <= 0.5\nentropy = 0.812\nsamples = 2401310\nvalue = [601057, 1800253]"] ;
89 -> 90 ;
91 [label="X[70] <= 0.5\nentropy = 0.808\nsamples = 2366440\nvalue = [587404, 1779036]"] ;
90 -> 91 ;
92 [label="X[94] <= 0.5\nentropy = 0.807\nsamples = 2363579\nvalue = [585018, 1778561]"] ;
91 -> 92 ;
93 [label="X[80] <= 0.5\nentropy = 0.807\nsamples = 2362262\nvalue = [583701, 1778561]"] ;
92 -> 93 ;
94 [label="X[49] <= 0.5\nentropy = 0.805\nsamples = 2358456\nvalue = [580760, 1777696]"] ;
93 -> 94 ;
95 [label="X[59] <= 0.5\nentropy = 0.804\nsamples = 2356296\nvalue = [578600, 1777696]"] ;
94 -> 95 ;
96 [label="X[66] <= 0.5\nentropy = 0.803\nsamples = 2354838\nvalue = [577142, 1777696]"] ;
95 -> 96 ;
97 [label="entropy = 0.799\nsamples = 2335478\nvalue = [566300, 1769178]"] ;
96 -> 97 ;
98 [label="entropy = 0.99\nsamples = 19360\nvalue = [10842, 8518]"] ;
96 -> 98 ;
99 [label="entropy = 0.0\nsamples = 1458\nvalue = [1458, 0]"] ;
95 -> 99 ;
100 [label="entropy = 0.0\nsamples = 2160\nvalue = [2160, 0]"] ;
94 -> 100 ;
101 [label="entropy = 0.773\nsamples = 3806\nvalue = [2941, 865]"] ;
93 -> 101 ;
102 [label="entropy = 0.0\nsamples = 1317\nvalue = [1317, 0]"] ;
92 -> 102 ;
103 [label="entropy = 0.649\nsamples = 2861\nvalue = [2386, 475]"] ;
91 -> 103 ;
104 [label="entropy = 0.966\nsamples = 34870\nvalue = [13653, 21217]"] ;
90 -> 104 ;
105 [label="entropy = 0.992\nsamples = 39480\nvalue = [17632, 21848]"] ;
89 -> 105 ;
106 [label="entropy = 0.0\nsamples = 3263\nvalue = [3263, 0]"] ;
88 -> 106 ;
107 [label="entropy = 0.905\nsamples = 965\nvalue = [656, 309]"] ;
87 -> 107 ;
108 [label="entropy = 0.142\nsamples = 1598\nvalue = [1566, 32]"] ;
86 -> 108 ;
109 [label="entropy = 0.588\nsamples = 2407\nvalue = [2067, 340]"] ;
85 -> 109 ;
110 [label="entropy = 0.602\nsamples = 39410\nvalue = [5792, 33618]"] ;
84 -> 110 ;
111 [label="entropy = 0.0\nsamples = 9674\nvalue = [0, 9674]"] ;
83 -> 111 ;
112 [label="entropy = 0.242\nsamples = 1679\nvalue = [1612, 67]"] ;
82 -> 112 ;
113 [label="entropy = 0.576\nsamples = 1835\nvalue = [1584, 251]"] ;
81 -> 113 ;
114 [label="entropy = 0.951\nsamples = 18898\nvalue = [6989, 11909]"] ;
80 -> 114 ;
115 [label="X[2] <= 0.5\nentropy = 0.566\nsamples = 128514\nvalue = [17112, 111402]"] ;
79 -> 115 ;
116 [label="entropy = 0.566\nsamples = 128509\nvalue = [17112, 111397]"] ;
115 -> 116 ;
117 [label="entropy = 0.0\nsamples = 5\nvalue = [0, 5]"] ;
115 -> 117 ;
118 [label="entropy = 0.564\nsamples = 35122\nvalue = [4656, 30466]"] ;
78 -> 118 ;
119 [label="entropy = 0.0\nsamples = 3880\nvalue = [3880, 0]"] ;
77 -> 119 ;
120 [label="entropy = 0.0\nsamples = 1899\nvalue = [1899, 0]"] ;
76 -> 120 ;
121 [label="X[66] <= 0.5\nentropy = 0.027\nsamples = 1860\nvalue = [1855, 5]"] ;
75 -> 121 ;
122 [label="entropy = 0.0\nsamples = 5\nvalue = [0, 5]"] ;
121 -> 122 ;
123 [label="entropy = 0.0\nsamples = 1855\nvalue = [1855, 0]"] ;
121 -> 123 ;
124 [label="entropy = 0.0\nsamples = 1599\nvalue = [1599, 0]"] ;
74 -> 124 ;
125 [label="X[8] <= 0.5\nentropy = 0.556\nsamples = 38932\nvalue = [5037, 33895]"] ;
73 -> 125 ;
126 [label="entropy = 0.556\nsamples = 38885\nvalue = [5037, 33848]"] ;
125 -> 126 ;
127 [label="entropy = 0.0\nsamples = 47\nvalue = [0, 47]"] ;
125 -> 127 ;
128 [label="entropy = 0.828\nsamples = 23663\nvalue = [6170, 17493]"] ;
72 -> 128 ;
129 [label="entropy = 0.044\nsamples = 1455\nvalue = [1448, 7]"] ;
71 -> 129 ;
130 [label="entropy = 0.0\nsamples = 81\nvalue = [0, 81]"] ;
70 -> 130 ;
131 [label="X[90] <= 0.5\nentropy = 0.913\nsamples = 1296753\nvalue = [425991, 870762]"] ;
69 -> 131 ;
132 [label="X[94] <= 0.5\nentropy = 0.914\nsamples = 1287132\nvalue = [423929, 863203]"] ;
131 -> 132 ;
133 [label="X[89] <= 0.5\nentropy = 0.914\nsamples = 1286790\nvalue = [423672, 863118]"] ;
132 -> 133 ;
134 [label="X[95] <= 0.5\nentropy = 0.916\nsamples = 1272384\nvalue = [420805, 851579]"] ;
133 -> 134 ;
135 [label="X[66] <= 0.5\nentropy = 0.916\nsamples = 1271808\nvalue = [420412, 851396]"] ;
134 -> 135 ;
136 [label="X[61] <= 0.5\nentropy = 0.915\nsamples = 1266965\nvalue = [418810, 848155]"] ;
135 -> 136 ;
137 [label="X[85] <= 0.5\nentropy = 0.915\nsamples = 1265744\nvalue = [417957, 847787]"] ;
136 -> 137 ;
138 [label="X[70] <= 0.5\nentropy = 0.918\nsamples = 1224652\nvalue = [408204, 816448]"] ;
137 -> 138 ;
139 [label="X[75] <= 0.5\nentropy = 0.918\nsamples = 1223968\nvalue = [407665, 816303]"] ;
138 -> 139 ;
140 [label="X[86] <= 0.5\nentropy = 0.918\nsamples = 1223928\nvalue = [407665, 816263]"] ;
139 -> 140 ;
141 [label="X[96] <= 0.5\nentropy = 0.918\nsamples = 1215669\nvalue = [404692, 810977]"] ;
140 -> 141 ;
142 [label="X[72] <= 0.5\nentropy = 0.918\nsamples = 1215532\nvalue = [404558, 810974]"] ;
141 -> 142 ;
143 [label="X[79] <= 0.5\nentropy = 0.917\nsamples = 1209423\nvalue = [401020, 808403]"] ;
142 -> 143 ;
144 [label="X[80] <= 0.5\nentropy = 0.916\nsamples = 1208867\nvalue = [400537, 808330]"] ;
143 -> 144 ;
145 [label="X[99] <= 0.5\nentropy = 0.916\nsamples = 1206616\nvalue = [399475, 807141]"] ;
144 -> 145 ;
146 [label="X[63] <= 0.5\nentropy = 0.917\nsamples = 1172527\nvalue = [389499, 783028]"] ;
145 -> 146 ;
147 [label="X[83] <= 0.5\nentropy = 0.916\nsamples = 1140896\nvalue = [377990, 762906]"] ;
146 -> 147 ;
148 [label="entropy = 0.917\nsamples = 1132814\nvalue = [375610, 757204]"] ;
147 -> 148 ;
149 [label="entropy = 0.874\nsamples = 8082\nvalue = [2380, 5702]"] ;
147 -> 149 ;
150 [label="entropy = 0.946\nsamples = 31631\nvalue = [11509, 20122]"] ;
146 -> 150 ;
151 [label="entropy = 0.872\nsamples = 34089\nvalue = [9976, 24113]"] ;
145 -> 151 ;
152 [label="entropy = 0.998\nsamples = 2251\nvalue = [1062, 1189]"] ;
144 -> 152 ;
153 [label="entropy = 0.561\nsamples = 556\nvalue = [483, 73]"] ;
143 -> 153 ;
154 [label="entropy = 0.982\nsamples = 6109\nvalue = [3538, 2571]"] ;
142 -> 154 ;
155 [label="entropy = 0.152\nsamples = 137\nvalue = [134, 3]"] ;
141 -> 155 ;
156 [label="entropy = 0.943\nsamples = 8259\nvalue = [2973, 5286]"] ;
140 -> 156 ;
157 [label="entropy = 0.0\nsamples = 40\nvalue = [0, 40]"] ;
139 -> 157 ;
158 [label="entropy = 0.745\nsamples = 684\nvalue = [539, 145]"] ;
138 -> 158 ;
159 [label="entropy = 0.791\nsamples = 41092\nvalue = [9753, 31339]"] ;
137 -> 159 ;
160 [label="entropy = 0.883\nsamples = 1221\nvalue = [853, 368]"] ;
136 -> 160 ;
161 [label="entropy = 0.916\nsamples = 4843\nvalue = [1602, 3241]"] ;
135 -> 161 ;
162 [label="entropy = 0.902\nsamples = 576\nvalue = [393, 183]"] ;
134 -> 162 ;
163 [label="entropy = 0.72\nsamples = 14406\nvalue = [2867, 11539]"] ;
133 -> 163 ;
164 [label="entropy = 0.809\nsamples = 342\nvalue = [257, 85]"] ;
132 -> 164 ;
165 [label="entropy = 0.75\nsamples = 9621\nvalue = [2062, 7559]"] ;
131 -> 165 ;
166 [label="entropy = 0.0\nsamples = 2471\nvalue = [2471, 0]"] ;
68 -> 166 ;
167 [label="X[0] <= 0.5\nentropy = 0.518\nsamples = 29456\nvalue = [3417, 26039]"] ;
67 -> 167 ;
168 [label="entropy = 0.322\nsamples = 21406\nvalue = [1253, 20153]"] ;
167 -> 168 ;
169 [label="entropy = 0.84\nsamples = 8050\nvalue = [2164, 5886]"] ;
167 -> 169 ;
170 [label="X[0] <= 0.5\nentropy = 0.702\nsamples = 6812\nvalue = [1295, 5517]"] ;
66 -> 170 ;
171 [label="entropy = 0.822\nsamples = 3986\nvalue = [1023, 2963]"] ;
170 -> 171 ;
172 [label="entropy = 0.457\nsamples = 2826\nvalue = [272, 2554]"] ;
170 -> 172 ;
173 [label="entropy = 0.0\nsamples = 1815\nvalue = [1815, 0]"] ;
65 -> 173 ;
174 [label="entropy = 0.145\nsamples = 1593\nvalue = [1560, 33]"] ;
64 -> 174 ;
175 [label="entropy = 0.101\nsamples = 1593\nvalue = [1572, 21]"] ;
63 -> 175 ;
176 [label="X[0] <= 0.5\nentropy = 0.793\nsamples = 3947\nvalue = [3004, 943]"] ;
62 -> 176 ;
177 [label="entropy = 0.862\nsamples = 2610\nvalue = [1866, 744]"] ;
176 -> 177 ;
178 [label="entropy = 0.607\nsamples = 1337\nvalue = [1138, 199]"] ;
176 -> 178 ;
179 [label="X[0] <= 0.5\nentropy = 0.218\nsamples = 1667\nvalue = [1609, 58]"] ;
61 -> 179 ;
180 [label="entropy = 0.0\nsamples = 976\nvalue = [976, 0]"] ;
179 -> 180 ;
181 [label="entropy = 0.416\nsamples = 691\nvalue = [633, 58]"] ;
179 -> 181 ;
182 [label="X[0] <= 0.5\nentropy = 0.917\nsamples = 14511\nvalue = [9699, 4812]"] ;
60 -> 182 ;
183 [label="entropy = 0.85\nsamples = 12746\nvalue = [9230, 3516]"] ;
182 -> 183 ;
184 [label="entropy = 0.835\nsamples = 1765\nvalue = [469, 1296]"] ;
182 -> 184 ;
185 [label="entropy = 0.0\nsamples = 1510\nvalue = [1510, 0]"] ;
59 -> 185 ;
186 [label="entropy = 0.0\nsamples = 1472\nvalue = [1472, 0]"] ;
58 -> 186 ;
187 [label="X[66] <= 0.5\nentropy = 0.094\nsamples = 3880\nvalue = [3833, 47]"] ;
57 -> 187 ;
188 [label="X[72] <= 0.5\nentropy = 0.095\nsamples = 3874\nvalue = [3827, 47]"] ;
187 -> 188 ;
189 [label="entropy = 0.0\nsamples = 47\nvalue = [0, 47]"] ;
188 -> 189 ;
190 [label="entropy = 0.0\nsamples = 3827\nvalue = [3827, 0]"] ;
188 -> 190 ;
191 [label="entropy = 0.0\nsamples = 6\nvalue = [6, 0]"] ;
187 -> 191 ;
192 [label="X[0] <= 0.5\nentropy = 0.827\nsamples = 10641\nvalue = [7872, 2769]"] ;
56 -> 192 ;
193 [label="entropy = 0.882\nsamples = 7542\nvalue = [5275, 2267]"] ;
192 -> 193 ;
194 [label="entropy = 0.639\nsamples = 3099\nvalue = [2597, 502]"] ;
192 -> 194 ;
195 [label="entropy = 0.059\nsamples = 1770\nvalue = [1758, 12]"] ;
55 -> 195 ;
196 [label="entropy = 0.0\nsamples = 9867\nvalue = [0, 9867]"] ;
54 -> 196 ;
197 [label="X[62] <= 0.5\nentropy = 0.943\nsamples = 109402\nvalue = [39374, 70028]"] ;
53 -> 197 ;
198 [label="X[89] <= 0.5\nentropy = 0.941\nsamples = 107963\nvalue = [38636, 69327]"] ;
197 -> 198 ;
199 [label="X[80] <= 0.5\nentropy = 0.942\nsamples = 107289\nvalue = [38585, 68704]"] ;
198 -> 199 ;
200 [label="X[66] <= 0.5\nentropy = 0.942\nsamples = 107136\nvalue = [38499, 68637]"] ;
199 -> 200 ;
201 [label="X[87] <= 0.5\nentropy = 0.943\nsamples = 106947\nvalue = [38499, 68448]"] ;
200 -> 201 ;
202 [label="X[71] <= 0.5\nentropy = 0.947\nsamples = 105495\nvalue = [38499, 66996]"] ;
201 -> 202 ;
203 [label="X[72] <= 0.5\nentropy = 0.948\nsamples = 104765\nvalue = [38375, 66390]"] ;
202 -> 203 ;
204 [label="X[99] <= 0.5\nentropy = 0.949\nsamples = 104349\nvalue = [38374, 65975]"] ;
203 -> 204 ;
205 [label="X[95] <= 0.5\nentropy = 0.949\nsamples = 103667\nvalue = [38102, 65565]"] ;
204 -> 205 ;
206 [label="X[83] <= 0.5\nentropy = 0.933\nsamples = 100685\nvalue = [35127, 65558]"] ;
205 -> 206 ;
207 [label="X[85] <= 0.5\nentropy = 0.921\nsamples = 96190\nvalue = [32342, 63848]"] ;
206 -> 207 ;
208 [label="entropy = 0.913\nsamples = 94434\nvalue = [30993, 63441]"] ;
207 -> 208 ;
209 [label="entropy = 0.781\nsamples = 1756\nvalue = [1349, 407]"] ;
207 -> 209 ;
210 [label="entropy = 0.958\nsamples = 4495\nvalue = [2785, 1710]"] ;
206 -> 210 ;
211 [label="entropy = 0.024\nsamples = 2982\nvalue = [2975, 7]"] ;
205 -> 211 ;
212 [label="entropy = 0.97\nsamples = 682\nvalue = [272, 410]"] ;
204 -> 212 ;
213 [label="entropy = 0.024\nsamples = 416\nvalue = [1, 415]"] ;
203 -> 213 ;
214 [label="entropy = 0.657\nsamples = 730\nvalue = [124, 606]"] ;
202 -> 214 ;
215 [label="entropy = 0.0\nsamples = 1452\nvalue = [0, 1452]"] ;
201 -> 215 ;
216 [label="entropy = 0.0\nsamples = 189\nvalue = [0, 189]"] ;
200 -> 216 ;
217 [label="entropy = 0.989\nsamples = 153\nvalue = [86, 67]"] ;
199 -> 217 ;
218 [label="entropy = 0.387\nsamples = 674\nvalue = [51, 623]"] ;
198 -> 218 ;
219 [label="entropy = 1.0\nsamples = 1439\nvalue = [738, 701]"] ;
197 -> 219 ;
220 [label="X[0] <= 0.5\nentropy = 0.175\nsamples = 1566\nvalue = [1525, 41]"] ;
52 -> 220 ;
221 [label="entropy = 0.0\nsamples = 934\nvalue = [934, 0]"] ;
220 -> 221 ;
222 [label="entropy = 0.346\nsamples = 632\nvalue = [591, 41]"] ;
220 -> 222 ;
223 [label="entropy = 0.0\nsamples = 1777\nvalue = [1777, 0]"] ;
51 -> 223 ;
224 [label="entropy = 0.0\nsamples = 30\nvalue = [30, 0]"] ;
50 -> 224 ;
225 [label="entropy = 0.0\nsamples = 4906\nvalue = [4906, 0]"] ;
49 -> 225 ;
226 [label="entropy = 0.0\nsamples = 2220\nvalue = [2220, 0]"] ;
48 -> 226 ;
227 [label="entropy = 0.423\nsamples = 2014\nvalue = [1841, 173]"] ;
47 -> 227 ;
228 [label="entropy = 0.0\nsamples = 1634\nvalue = [1634, 0]"] ;
46 -> 228 ;
229 [label="X[72] <= 0.5\nentropy = 0.712\nsamples = 3368\nvalue = [2711, 657]"] ;
45 -> 229 ;
230 [label="entropy = 0.03\nsamples = 659\nvalue = [2, 657]"] ;
229 -> 230 ;
231 [label="entropy = 0.0\nsamples = 2709\nvalue = [2709, 0]"] ;
229 -> 231 ;
232 [label="X[63] <= 0.5\nentropy = 0.641\nsamples = 7939\nvalue = [6645, 1294]"] ;
44 -> 232 ;
233 [label="X[83] <= 0.5\nentropy = 0.642\nsamples = 7932\nvalue = [6638, 1294]"] ;
232 -> 233 ;
234 [label="entropy = 0.943\nsamples = 3585\nvalue = [2291, 1294]"] ;
233 -> 234 ;
235 [label="entropy = 0.0\nsamples = 4347\nvalue = [4347, 0]"] ;
233 -> 235 ;
236 [label="entropy = 0.0\nsamples = 7\nvalue = [7, 0]"] ;
232 -> 236 ;
237 [label="X[0] <= 0.5\nentropy = 0.999\nsamples = 29076\nvalue = [15062, 14014]"] ;
43 -> 237 ;
238 [label="entropy = 0.998\nsamples = 22224\nvalue = [11696, 10528]"] ;
237 -> 238 ;
239 [label="entropy = 1.0\nsamples = 6852\nvalue = [3366, 3486]"] ;
237 -> 239 ;
240 [label="entropy = 0.0\nsamples = 1633\nvalue = [1633, 0]"] ;
42 -> 240 ;
241 [label="X[4] <= 0.5\nentropy = 0.424\nsamples = 23575\nvalue = [2037, 21538]"] ;
41 -> 241 ;
242 [label="X[0] <= 0.5\nentropy = 0.424\nsamples = 23574\nvalue = [2037, 21537]"] ;
241 -> 242 ;
243 [label="entropy = 0.378\nsamples = 19127\nvalue = [1401, 17726]"] ;
242 -> 243 ;
244 [label="entropy = 0.592\nsamples = 4447\nvalue = [636, 3811]"] ;
242 -> 244 ;
245 [label="entropy = 0.0\nsamples = 1\nvalue = [0, 1]"] ;
241 -> 245 ;
246 [label="entropy = 0.0\nsamples = 1516\nvalue = [1516, 0]"] ;
40 -> 246 ;
247 [label="X[0] <= 0.5\nentropy = 0.5\nsamples = 42056\nvalue = [4629, 37427]"] ;
39 -> 247 ;
248 [label="entropy = 0.487\nsamples = 36738\nvalue = [3890, 32848]"] ;
247 -> 248 ;
249 [label="entropy = 0.582\nsamples = 5318\nvalue = [739, 4579]"] ;
247 -> 249 ;
250 [label="X[2] <= 0.5\nentropy = 0.612\nsamples = 60672\nvalue = [9147, 51525]"] ;
38 -> 250 ;
251 [label="X[21] <= 0.5\nentropy = 0.612\nsamples = 60670\nvalue = [9147, 51523]"] ;
250 -> 251 ;
252 [label="X[1] <= 0.5\nentropy = 0.612\nsamples = 60663\nvalue = [9147, 51516]"] ;
251 -> 252 ;
253 [label="X[0] <= 0.5\nentropy = 0.618\nsamples = 59727\nvalue = [9147, 50580]"] ;
252 -> 253 ;
254 [label="entropy = 0.485\nsamples = 35132\nvalue = [3695, 31437]"] ;
253 -> 254 ;
255 [label="entropy = 0.763\nsamples = 24595\nvalue = [5452, 19143]"] ;
253 -> 255 ;
256 [label="entropy = 0.0\nsamples = 936\nvalue = [0, 936]"] ;
252 -> 256 ;
257 [label="entropy = 0.0\nsamples = 7\nvalue = [0, 7]"] ;
251 -> 257 ;
258 [label="entropy = 0.0\nsamples = 2\nvalue = [0, 2]"] ;
250 -> 258 ;
259 [label="X[0] <= 0.5\nentropy = 0.692\nsamples = 77897\nvalue = [14446, 63451]"] ;
37 -> 259 ;
260 [label="X[1] <= 0.5\nentropy = 0.564\nsamples = 60501\nvalue = [8009, 52492]"] ;
259 -> 260 ;
261 [label="entropy = 0.577\nsamples = 58427\nvalue = [8009, 50418]"] ;
260 -> 261 ;
262 [label="entropy = 0.0\nsamples = 2074\nvalue = [0, 2074]"] ;
260 -> 262 ;
263 [label="entropy = 0.951\nsamples = 17396\nvalue = [6437, 10959]"] ;
259 -> 263 ;
264 [label="entropy = 0.0\nsamples = 2922\nvalue = [2922, 0]"] ;
36 -> 264 ;
265 [label="entropy = 0.0\nsamples = 1674\nvalue = [1674, 0]"] ;
35 -> 265 ;
266 [label="X[86] <= 0.5\nentropy = 0.437\nsamples = 10273\nvalue = [9346, 927]"] ;
34 -> 266 ;
267 [label="X[73] <= 0.5\nentropy = 0.078\nsamples = 936\nvalue = [9, 927]"] ;
266 -> 267 ;
268 [label="X[63] <= 0.5\nentropy = 0.58\nsamples = 65\nvalue = [9, 56]"] ;
267 -> 268 ;
269 [label="entropy = 0.586\nsamples = 64\nvalue = [9, 55]"] ;
268 -> 269 ;
270 [label="entropy = 0.0\nsamples = 1\nvalue = [0, 1]"] ;
268 -> 270 ;
271 [label="entropy = 0.0\nsamples = 871\nvalue = [0, 871]"] ;
267 -> 271 ;
272 [label="entropy = 0.0\nsamples = 9337\nvalue = [9337, 0]"] ;
266 -> 272 ;
273 [label="entropy = 0.0\nsamples = 5922\nvalue = [5922, 0]"] ;
33 -> 273 ;
274 [label="entropy = 0.75\nsamples = 14\nvalue = [11, 3]"] ;
32 -> 274 ;
275 [label="entropy = 0.038\nsamples = 1730\nvalue = [1723, 7]"] ;
31 -> 275 ;
276 [label="entropy = 0.0\nsamples = 2284\nvalue = [2284, 0]"] ;
30 -> 276 ;
277 [label="entropy = 0.3\nsamples = 2485\nvalue = [2353, 132]"] ;
29 -> 277 ;
278 [label="X[25] <= 0.5\nentropy = 0.51\nsamples = 24868\nvalue = [2818, 22050]"] ;
28 -> 278 ;
279 [label="X[0] <= 0.5\nentropy = 0.51\nsamples = 24848\nvalue = [2818, 22030]"] ;
278 -> 279 ;
280 [label="entropy = 0.507\nsamples = 20001\nvalue = [2247, 17754]"] ;
279 -> 280 ;
281 [label="entropy = 0.523\nsamples = 4847\nvalue = [571, 4276]"] ;
279 -> 281 ;
282 [label="entropy = 0.0\nsamples = 20\nvalue = [0, 20]"] ;
278 -> 282 ;
283 [label="entropy = 0.0\nsamples = 1892\nvalue = [1892, 0]"] ;
27 -> 283 ;
284 [label="X[98] <= 0.5\nentropy = 0.009\nsamples = 2647\nvalue = [2645, 2]"] ;
26 -> 284 ;
285 [label="entropy = 0.0\nsamples = 2645\nvalue = [2645, 0]"] ;
284 -> 285 ;
286 [label="entropy = 0.0\nsamples = 2\nvalue = [0, 2]"] ;
284 -> 286 ;
287 [label="X[0] <= 0.5\nentropy = 0.633\nsamples = 49319\nvalue = [7858, 41461]"] ;
25 -> 287 ;
288 [label="entropy = 0.608\nsamples = 40482\nvalue = [6037, 34445]"] ;
287 -> 288 ;
289 [label="entropy = 0.734\nsamples = 8837\nvalue = [1821, 7016]"] ;
287 -> 289 ;
290 [label="entropy = 0.0\nsamples = 1605\nvalue = [1605, 0]"] ;
24 -> 290 ;
291 [label="entropy = 0.0\nsamples = 2069\nvalue = [2069, 0]"] ;
23 -> 291 ;
292 [label="entropy = 0.0\nsamples = 2111\nvalue = [2111, 0]"] ;
22 -> 292 ;
293 [label="X[43] <= 0.5\nentropy = 0.958\nsamples = 12392\nvalue = [7682, 4710]"] ;
21 -> 293 ;
294 [label="X[1] <= 0.5\nentropy = 0.994\nsamples = 10325\nvalue = [5615, 4710]"] ;
293 -> 294 ;
295 [label="X[0] <= 0.5\nentropy = 0.944\nsamples = 7378\nvalue = [2668, 4710]"] ;
294 -> 295 ;
296 [label="entropy = 0.917\nsamples = 5215\nvalue = [1731, 3484]"] ;
295 -> 296 ;
297 [label="entropy = 0.987\nsamples = 2163\nvalue = [937, 1226]"] ;
295 -> 297 ;
298 [label="entropy = 0.0\nsamples = 2947\nvalue = [2947, 0]"] ;
294 -> 298 ;
299 [label="entropy = 0.0\nsamples = 2067\nvalue = [2067, 0]"] ;
293 -> 299 ;
300 [label="entropy = 0.0\nsamples = 1797\nvalue = [1797, 0]"] ;
20 -> 300 ;
301 [label="X[0] <= 0.5\nentropy = 0.485\nsamples = 24368\nvalue = [2563, 21805]"] ;
19 -> 301 ;
302 [label="entropy = 0.436\nsamples = 18079\nvalue = [1623, 16456]"] ;
301 -> 302 ;
303 [label="entropy = 0.609\nsamples = 6289\nvalue = [940, 5349]"] ;
301 -> 303 ;
304 [label="X[71] <= 0.5\nentropy = 0.023\nsamples = 2202\nvalue = [2197, 5]"] ;
18 -> 304 ;
305 [label="entropy = 0.0\nsamples = 2197\nvalue = [2197, 0]"] ;
304 -> 305 ;
306 [label="entropy = 0.0\nsamples = 5\nvalue = [0, 5]"] ;
304 -> 306 ;
307 [label="X[42] <= 0.5\nentropy = 0.953\nsamples = 152867\nvalue = [56993, 95874]"] ;
17 -> 307 ;
308 [label="X[1] <= 0.5\nentropy = 0.913\nsamples = 142608\nvalue = [46734, 95874]"] ;
307 -> 308 ;
309 [label="X[25] <= 0.5\nentropy = 0.91\nsamples = 141550\nvalue = [46068, 95482]"] ;
308 -> 309 ;
310 [label="X[52] <= 0.5\nentropy = 0.902\nsamples = 140010\nvalue = [44528, 95482]"] ;
309 -> 310 ;
311 [label="X[40] <= 0.5\nentropy = 0.893\nsamples = 138394\nvalue = [42912, 95482]"] ;
310 -> 311 ;
312 [label="X[0] <= 0.5\nentropy = 0.893\nsamples = 138389\nvalue = [42912, 95477]"] ;
311 -> 312 ;
313 [label="entropy = 0.871\nsamples = 103158\nvalue = [30120, 73038]"] ;
312 -> 313 ;
314 [label="entropy = 0.945\nsamples = 35231\nvalue = [12792, 22439]"] ;
312 -> 314 ;
315 [label="entropy = 0.0\nsamples = 5\nvalue = [0, 5]"] ;
311 -> 315 ;
316 [label="entropy = 0.0\nsamples = 1616\nvalue = [1616, 0]"] ;
310 -> 316 ;
317 [label="entropy = 0.0\nsamples = 1540\nvalue = [1540, 0]"] ;
309 -> 317 ;
318 [label="entropy = 0.951\nsamples = 1058\nvalue = [666, 392]"] ;
308 -> 318 ;
319 [label="entropy = 0.0\nsamples = 10259\nvalue = [10259, 0]"] ;
307 -> 319 ;
320 [label="entropy = 0.0\nsamples = 1741\nvalue = [1741, 0]"] ;
16 -> 320 ;
321 [label="entropy = 0.0\nsamples = 15366\nvalue = [0, 15366]"] ;
15 -> 321 ;
322 [label="X[88] <= 0.5\nentropy = 0.291\nsamples = 2074\nvalue = [1968, 106]"] ;
14 -> 322 ;
323 [label="entropy = 0.291\nsamples = 2072\nvalue = [1966, 106]"] ;
322 -> 323 ;
324 [label="entropy = 0.0\nsamples = 2\nvalue = [2, 0]"] ;
322 -> 324 ;
325 [label="X[90] <= 0.5\nentropy = 0.09\nsamples = 2205\nvalue = [2180, 25]"] ;
13 -> 325 ;
326 [label="entropy = 0.056\nsamples = 2194\nvalue = [2180, 14]"] ;
325 -> 326 ;
327 [label="entropy = 0.0\nsamples = 11\nvalue = [0, 11]"] ;
325 -> 327 ;
328 [label="X[0] <= 0.5\nentropy = 0.771\nsamples = 3741\nvalue = [2896, 845]"] ;
12 -> 328 ;
329 [label="entropy = 0.624\nsamples = 2400\nvalue = [2026, 374]"] ;
328 -> 329 ;
330 [label="entropy = 0.935\nsamples = 1341\nvalue = [870, 471]"] ;
328 -> 330 ;
331 [label="entropy = 0.0\nsamples = 1531\nvalue = [1531, 0]"] ;
11 -> 331 ;
332 [label="X[62] <= 0.5\nentropy = 0.093\nsamples = 1934\nvalue = [1911, 23]"] ;
10 -> 332 ;
333 [label="entropy = 0.116\nsamples = 1473\nvalue = [1450, 23]"] ;
332 -> 333 ;
334 [label="entropy = 0.0\nsamples = 461\nvalue = [461, 0]"] ;
332 -> 334 ;
335 [label="entropy = 0.0\nsamples = 2813\nvalue = [2813, 0]"] ;
9 -> 335 ;
336 [label="X[0] <= 0.5\nentropy = 0.701\nsamples = 4223\nvalue = [3422, 801]"] ;
8 -> 336 ;
337 [label="entropy = 0.628\nsamples = 4001\nvalue = [3372, 629]"] ;
336 -> 337 ;
338 [label="entropy = 0.77\nsamples = 222\nvalue = [50, 172]"] ;
336 -> 338 ;
339 [label="entropy = 0.0\nsamples = 2770\nvalue = [2770, 0]"] ;
7 -> 339 ;
340 [label="X[0] <= 0.5\nentropy = 0.195\nsamples = 2598\nvalue = [2520, 78]"] ;
6 -> 340 ;
341 [label="entropy = 0.169\nsamples = 2585\nvalue = [2520, 65]"] ;
340 -> 341 ;
342 [label="entropy = 0.0\nsamples = 13\nvalue = [0, 13]"] ;
340 -> 342 ;
343 [label="X[0] <= 0.5\nentropy = 0.581\nsamples = 45114\nvalue = [6258, 38856]"] ;
5 -> 343 ;
344 [label="entropy = 0.533\nsamples = 33396\nvalue = [4052, 29344]"] ;
343 -> 344 ;
345 [label="entropy = 0.698\nsamples = 11718\nvalue = [2206, 9512]"] ;
343 -> 345 ;
346 [label="X[0] <= 0.5\nentropy = 0.568\nsamples = 6299\nvalue = [5455, 844]"] ;
4 -> 346 ;
347 [label="X[1] <= 0.5\nentropy = 0.426\nsamples = 5600\nvalue = [5113, 487]"] ;
346 -> 347 ;
348 [label="entropy = 0.358\nsamples = 5355\nvalue = [4991, 364]"] ;
347 -> 348 ;
349 [label="entropy = 1.0\nsamples = 245\nvalue = [122, 123]"] ;
347 -> 349 ;
350 [label="entropy = 1.0\nsamples = 699\nvalue = [342, 357]"] ;
346 -> 350 ;
351 [label="entropy = 0.072\nsamples = 3446\nvalue = [3416, 30]"] ;
3 -> 351 ;
352 [label="entropy = 0.0\nsamples = 2310\nvalue = [2310, 0]"] ;
2 -> 352 ;
353 [label="entropy = 0.0\nsamples = 1915\nvalue = [1915, 0]"] ;
1 -> 353 ;
354 [label="X[91] <= 0.5\nentropy = 0.026\nsamples = 10253\nvalue = [26, 10227]"] ;
0 -> 354 [labeldistance=2.5, labelangle=-45, headlabel="False"] ;
355 [label="X[99] <= 0.5\nentropy = 0.026\nsamples = 10244\nvalue = [26, 10218]"] ;
354 -> 355 ;
356 [label="entropy = 0.939\nsamples = 73\nvalue = [26, 47]"] ;
355 -> 356 ;
357 [label="entropy = 0.0\nsamples = 10171\nvalue = [0, 10171]"] ;
355 -> 357 ;
358 [label="entropy = 0.0\nsamples = 9\nvalue = [0, 9]"] ;
354 -> 358 ;
}
